0,1,2,3,4,5,6,7,8,9,10,11,12,13,14,15,16,17,18,19,20,21,22,23,24,25,26,27,28,29
0.3780119576289423,-0.15476810331382512,0.23324065361593346,-0.5299485529251209,0.4680571354890583,0.006952866290268612,0.24181075229545845,0.7536108004477127,-0.7806838137633111,0.019864461401118187,0.40663181857638947,-0.2371209984437769,-0.5053230706326678,-0.03188593828057519,0.43215044387483204,-0.2441331712401659,0.16803020508240019,-0.3783180961540403,-0.3807866263933939,0.6113296510746509,0.40320475090089203,-0.5187162560139905,0.008929282418132359,0.3678488613470588,-0.6769727665123678,-0.2935349335598784,-0.9889968228958395,-0.13959761593666214,-0.34337900272664046,-0.24368936472971078
-0.33232725807234753,0.9609968422512634,-0.05747320797976288,0.030520045536124894,0.032063917885116276,-0.28090194759834325,-0.14686779638951541,0.27295238816699346,-0.3427324383232665,0.06892648065579496,-0.2454493902143915,0.06495940294343205,-0.4302495741167079,0.2540360977065684,0.6468208495698234,0.3440750644391238,-0.045192414359461974,-0.5164643256832647,-0.0242823958456775,0.09971089895595052,-0.1852684238261644,-0.35890866272357747,-0.1875504473370599,-0.34340449924382677,-0.556559106659345,-0.8377573679716593,-0.8940107281958678,-0.33185859026916104,-0.0054749568970199145,0.21315697179889953
0.22713067374052162,0.11365499531278091,-0.10983493974420304,-0.5728077332139613,0.20273309708377119,-0.4943081685121521,-0.06486627031999115,0.6462482251081092,-0.7517534718588578,0.1312001999211368,0.09659517812032757,-0.2565013325357631,-0.5926568590631364,-0.09431363498041476,0.5637465910362663,-0.022868594757419834,-0.2644107227197491,0.02707112737886829,-0.2837203249788482,0.6465542025974773,0.6076272134055302,-0.3459375620563592,-0.14938426853459452,0.027858629203146343,-0.4539482523319925,-0.6614848266142281,-0.7539066367207496,-0.15945145857798307,-0.4424910463588147,-0.5101715824807019
0.04845518435396708,0.4661682368065802,-0.35248257668708244,-0.4255920184488905,-0.18670918470243267,-0.6920058395772462,-0.2782233357617994,0.6995743067954108,-0.42524860688367494,0.1461276500496587,0.018308524846524454,0.08230841270361552,-0.6897967431251818,-0.22874155205995245,0.8603781404874468,0.22997518241894305,-0.29250522818097324,-0.04033710459560301,0.017707731860105,0.45290376119589004,0.012547754850211743,-0.47530417996302976,0.03502775967180496,-0.2571632334735542,-0.6901196336327364,-0.5646686398749995,-0.6010405976372953,0.01859129543767402,-0.4160430319614578,-0.42093536786920854
0.3281721764763019,0.31104928967539575,-0.04396507033779439,-0.49415879061852513,0.9455900313734841,-0.2390748757867787,-0.2589576480942748,0.5028665845523058,-0.6342319344143991,0.19736728214421248,-0.12287579001372145,0.21903609734428603,-0.04218911288785399,-0.5663488142883385,0.3019655320571111,-0.17805328797050662,0.18910152570322405,-0.4492897344564161,0.13144873588032713,0.5889136236006837,0.1164604678851054,-0.23925685621365944,-0.04701953069278971,-0.35363976100321315,-0.8132192798473575,-0.1388616406635605,-0.8175554193113161,-0.5621117102472535,0.143228545592658,-1.134199274662032
0.2115389107005433,0.4362482171622565,-0.2997120206955498,-0.2316681352899225,0.435112332787083,-0.4826539917264957,-0.23896510232274795,0.49819084827504095,-0.34451402814252646,-0.02664624167591887,-0.09880281645734028,0.24496072630920052,-0.5868129119842582,-0.36594255412500587,0.8200888085081652,-0.03547482634479452,0.020158833913883685,-0.3018245041044653,0.0077250297316219475,0.4645290735040796,-0.028419058886606504,-0.3994374121402639,0.27171343034451884,-0.3199679625770277,-0.7905768654762433,-0.4230780427645479,-0.7959658182458111,-0.2936502922275028,-0.21637958807775623,-0.6623317485789605
-0.3715894640565829,0.7681809454089348,0.10306263142721261,0.05984538238322603,0.5553191682428713,0.10781763407704009,-0.2642177459847892,-0.034295848755005215,-0.3950481608334893,-0.3581306963614896,-0.06173350234946255,0.04711728093088686,-0.15521303211962353,0.1876765609483063,0.3523726086134394,0.14230251038867475,0.22209596456992334,-0.589289381437338,-0.24571913286523384,0.3397372415395761,-0.2623478482361297,-0.03129966358222507,-0.5788017693659319,0.050740635717951336,-0.7425562015191848,-0.9509895368444076,-1.0638146462343783,-0.4387844601027303,0.1244941072662474,0.25999299394969566
-0.7165339532871462,-0.01797709272062,1.408984374994607,-1.174368116919815,1.3094423642532467,0.2610958299621644,1.701240477650784,0.8187858050399438,-0.5006841055475788,1.0313246719492954,0.40939125242459895,0.1706994494084524,0.9722752851093184,-1.6982518395802773,-0.8673183428682945,-0.8586003187685868,0.46587004655855846,-0.640097528691577,0.11547183656941375,-0.36981597390469234,0.5425758699260563,-0.21065737069447046,-1.1864112711046435,-1.3188713688620488,0.02502261371663153,-0.9484188305653529,2.231365475738195,0.6221348789869428,-0.9504707122541115,-1.9467318343412854
-0.31558350771125465,0.17130419664089816,1.2465397336582513,-0.3506456379370329,0.35873803143794153,0.45368169321889945,0.06910797528996923,0.06374225763298497,-0.5447025109557009,-0.25362996681844346,0.1958855457495386,-0.5174005996450388,-0.14287098114455316,0.7080814563138959,-0.009488920775958462,0.08332330342766632,0.13624191902802618,-0.7545104418368043,-0.6534243031002303,0.29709443165301475,-0.09767560919476234,-0.7332001994482445,-0.6528315936679845,1.0282112883834862,-0.5730411390703231,-0.507930831275091,-1.1601571640031783,-0.522124439345139,-0.032976019981472635,0.6891299723659666
-0.7471102270487681,1.7110914166276376,0.1981799534328003,0.24623977232139047,0.10398416866511168,-0.1370997626783658,0.09273483981556371,0.23383444410617213,0.743405066945957,-0.5641757513491052,0.05181515110494297,0.6347309662243498,-0.7528157282169057,0.5858216512203404,0.9652534441866644,0.1251094070443714,0.14607459220591484,-0.44800840762880495,0.3992728942241999,0.033302464620123255,-0.31724759068260644,-0.8420786441365607,0.8996082369658845,0.006205949458065721,-1.0862123874136365,-1.1999683720307486,-1.1689343564019787,-0.5008636986539644,0.1618925790689286,1.9593643415458877
