0,1,2,3,4,5,6,7,8,9,10,11,12,13,14,15,16,17,18,19,20,21,22,23,24
-0.1718306317290862,-0.1470292046846893,0.30833607238389327,-0.11801459027559033,0.002463412587732674,-0.471929682952385,0.43521578899728636,-0.12212214588897832,-0.13612507862299492,-0.30825660638348773,0.511358817311925,-0.08633641616101609,-0.0023615832629591996,0.6150368439252801,0.22656338917289498,0.07520088758643745,-0.2659248050397886,-0.3484718067504734,0.15131178309476595,0.032851415383840614,0.09524505804620385,-0.20450783665465835,-0.20547279290323006,-0.3729905941192071,-0.21664405879594464
-0.08768427220419643,-0.7514619717794795,0.324105282531589,0.0001299825385882108,-0.5671362829940129,-0.06692450842587393,0.031981824850119626,0.05813486813562628,-0.07128161183463556,-0.25692709229755,0.34682000302654203,0.04408358616597622,0.11249902362466559,0.7978608691835366,0.07086980367070163,-0.1547243126973758,-0.318414523360253,-0.23227985725218198,0.05138792740639261,0.10025481529033867,-0.1028898398495177,0.03591398850183361,0.12574556507804407,-0.1202762204607647,-0.12139948918256513
-0.1026167558123428,-0.5539589729570022,0.31374322418480927,-0.008258511377315108,-0.40379606554358943,-0.16137038938560685,0.1713520344727406,0.0071741052664829625,-0.11452878523726977,-0.2855234453394689,0.4015234473850516,0.04394864597656591,0.04888326940518228,0.7375674490567387,0.13890687718179223,-0.06946356399101088,-0.3041999631736752,-0.2099452964363667,0.0560013085854181,0.04930704224984491,-0.07489206549596589,-0.018285640102927686,0.012779639818372613,-0.19988880310015086,-0.12146543931323733
-0.1322125423154191,-0.5712566104169995,0.3458021583729089,0.013401561655604225,-0.3611021381571711,-0.1500532543525983,0.1875101673317515,0.02861526757500303,-0.07543256488137653,-0.3017518697330557,0.408170982187098,0.03273597319114989,0.041119647967194355,0.7292000615017433,0.07605049850220143,-0.10778299405299398,-0.30476267089258813,-0.20359903137850222,0.10641281210863753,0.09768221210022354,-0.07799185542977595,-0.024943418712952425,0.10197734388759952,-0.22115278905563154,-0.16413273877493284
-0.07274995376816508,-0.4619258461835666,0.462938695210518,-0.09612180135199812,-0.4616272812945293,0.0019624655409652284,0.1448405512498824,0.03227290210559667,-0.041091941552317886,-0.1654302642378123,0.4135963704812418,0.07215805187629645,0.19536962814573824,0.5419298023879372,0.0736997141595489,-0.11816708337244901,-0.27519874616487205,-0.3114189199203594,0.16135862279598376,0.0879964459559594,0.05393120148267611,-0.09404586657326626,0.1452045702972864,-0.08195284917136342,-0.07568392558055671
-0.2844211856905976,-0.21093649453283975,0.45367483296849714,-0.15155773406166362,0.09174841732732142,-0.23775764478011546,0.3415353264933576,0.13174069366107027,0.012149911955367498,-0.18470113952245532,0.4965111501443927,-0.008966351949413512,0.25417754303174284,0.36887098065991425,0.01825058492118768,-0.08843932296942357,-0.2996665322943049,-0.30473401716745246,0.21252262392074975,-0.1823292684917715,0.19785073170106962,-0.17490250466242374,0.1569155770860183,-0.22910645986266756,-0.31744960947088524
