0,1,2,3,4,5,6,7,8,9,10,11,12,13,14,15,16,17,18,19,20,21,22,23,24
0.33949753685309486,-0.10686218771114574,0.16048113933020308,-0.32252315488041167,-0.03365182898972305,0.062023000012935495,0.3556974850779669,-0.13783612125971595,-0.3295485449525122,0.054756101648850836,0.28160494832977456,0.1834773238569967,-0.15470940403275887,-0.36920650294630925,-0.12107940396313231,0.3476890029307549,-0.0974405622641636,0.03255685194657497,-0.012331221361491474,-0.08284161905314626,-0.08424690174914264,0.10646130791200373,0.11300513698406467,0.16925945997305494,0.39922225277355683
0.2930883409265275,-0.07151751346043969,-0.11963510105752523,-0.3141641727510258,-0.05805757109610608,0.10069206896825518,0.5783922810296417,-0.27077663347589614,-0.33714243129512456,0.20419265116875202,0.40734520836694477,0.20714120709208955,0.10173435922758964,-0.4202406911872024,-0.10953709706990913,0.19446346826753297,-0.035168135589818184,-0.1854485081754903,0.11302610959853997,-0.1520088578757145,0.02648333970707856,0.03968056849413602,0.1549176718997476,0.00616889881371679,0.41887443298726573
0.30298434894963017,-0.040035236049327926,-0.25664415232844384,-0.39657610459692844,-0.05697417617324249,0.13858798396044264,0.7287626534301448,-0.30368575156991084,-0.31990131037152697,0.1961474719195509,0.44610886678431544,0.2267034352233179,0.24282585829218833,-0.5567258024224654,-0.11073015361948206,0.12827778429455097,-0.04033195824966363,-0.2525417270189781,0.18811012572528882,-0.21045957352428907,0.090377522940483,0.0038207011346412883,0.16672993041182696,-0.07032563571011892,0.36206861665215867
0.2803932410175298,-0.08360377473577722,-0.09375207317167214,-0.29993020618723254,-0.05330379279308855,0.10081352986273913,0.5578153579405926,-0.2715375176574846,-0.34534127059060593,0.21009216901215924,0.3790410084491612,0.19874822900529604,0.06868217494688357,-0.40896324574063314,-0.11509334351082011,0.20476669480011825,-0.029574738207180585,-0.18476525506197156,0.10719950194774878,-0.14792597107270739,0.0037374345704530463,0.045680306165927956,0.151342596246664,0.02403967982968254,0.4253239645600418
0.36452081207344506,-0.15091731352460677,-0.08137887299515485,-0.21948952581720213,0.042722579570996115,0.14465534428881596,0.2634579336794052,-0.1886757469441444,-0.3371901589022043,0.11520291003318509,0.371142340402672,0.2427377321393768,0.1633095453319192,-0.20435732815897104,-0.1356276988374735,0.17220779638315648,-0.17320661564535356,-0.14056561367638779,0.07245166852129764,-0.06921981328712225,-0.04109547707318785,0.04760203249301368,0.10865599446341036,0.011696256899151929,0.45825115448930576
0.2869887309867517,-0.04041558477632341,-0.09977736402308682,-0.32826125016711616,-0.06477621075055291,0.08795625842498996,0.5907722129319148,-0.27156275467599833,-0.35565119896304914,0.20498288443268975,0.335305051187482,0.20158366147184048,0.04699456535525064,-0.42403864633399335,-0.11338042412140797,0.22892030112024955,-0.027937835660240964,-0.14292618722837733,0.07812544682084493,-0.14205405094904355,-0.04233800535897939,0.03939075337446436,0.18524400192867427,0.012104771395210144,0.39438142339655696
0.32181467671074887,-0.39675099211635756,0.051064353952395794,-0.12565955781580201,0.08655693158338656,0.13382088220719868,0.12648956423599977,-0.3016533606598604,-0.4607780280822013,0.21356974073258178,0.3112172754976213,0.11918704602710496,0.18369099121684662,0.12710971554572636,-0.164012034915227,0.3408605037678806,-0.1088931146695608,-0.11597720521335278,-0.08108425288551702,-0.004534592143319748,-0.2638405068505927,0.008387569456595259,-0.0174418708351643,0.2608619206659279,0.5589576984988853
0.3144134551850667,-0.11464161146217676,-0.14858238089844242,-0.30199969895034423,-0.011670687556557893,0.14233321912763608,0.5193327967915716,-0.26096851501499646,-0.3345050181931255,0.17749475031018,0.4207369749315184,0.23136813392244684,0.21926249136261264,-0.36869481038000135,-0.12300397978219754,0.15237492469735658,-0.0984772446358301,-0.2260833516606398,0.13884855719104008,-0.14173387492730316,0.025021338177277853,0.02893802203644589,0.12702384066772623,-0.004902867478005116,0.42107501294820937
0.46816809831620965,-0.36816521879952385,0.22855765683481757,-0.10196322077659113,-0.0867436806866493,0.09591569495440226,-0.08699259984155756,-0.14291811998222764,-0.4163461184410887,0.19642237615077382,0.4604933121408795,0.20359457238192885,0.06490087369453859,0.2379611106290453,-0.16856322744687746,0.30854156406314165,-0.3152665620517519,-0.03837210859653693,-0.05273978761434767,0.031268851148122605,-0.3052596467374914,0.14976965327095104,0.05187589460388576,0.2928715025802838,0.6706046851157769
0.47809333741236776,-0.1814198113220551,-0.10265504257541296,-0.19680259038386058,0.036799220953979896,0.11636362161302868,-0.04220274135435794,-0.14903518166449387,-0.30899320984595846,0.10534999297332322,0.4954832060953073,0.33929371347390314,0.25317648115030744,-0.015766359450072723,-0.06625780720778614,0.1232460514707986,-0.34113641100700315,-0.04003787739902286,0.038325101919153226,-0.01718883806498698,-0.060292964458827834,0.039966851553758294,0.08213359555696674,-0.0439605870147022,0.5321872592421207
