0,1,2,3,4,5,6,7,8,9,10,11,12,13,14,15,16,17,18,19,20,21,22,23,24
-0.5109744617756398,0.44041970933253816,-0.18732884625471516,-0.03939310036488113,-0.3689470624636755,0.21947986278913179,0.06251596150945707,0.4661124165558357,0.5276076725725488,-0.08008878963889154,0.04103806321449776,-0.5158426451211634,0.3934570197632578,-0.25866727869151057,-0.2063356136588617,-0.4018279475289163,0.05163877428377775,-0.015864792770470412,0.06944609306059363,0.2139940736457286,0.34723888213445525,-0.2548989386116928,-0.041584717369468005,-0.053005846522327885,0.1682692187790424
-0.31032007040231124,-0.15835889614078355,0.03963838623340548,0.03363069485973153,-0.3932539149211462,-0.17859357337462892,0.02196640987585525,-0.09784875567028115,0.7380112771001932,-0.17624558539638333,0.26028382767172564,-0.7148192373409158,0.22805978876496533,-0.23719425125790952,-0.1763387510425475,-0.023536910547716935,-0.29469184086330963,0.26883664101592564,0.14456897566200844,0.37325628871218736,0.055215670600700595,-0.10990458275598544,-0.1978463511866619,0.06761250833472489,8.132314190677093e-06
-0.3373013387988382,0.11325417820713833,-0.02184486897040685,0.023606387429495522,-0.36843657113712935,0.032326967048271274,0.006067243796597054,0.14351354900724067,0.6325845591255511,-0.10939599869698546,0.17825072300642106,-0.5615585104447297,0.23354818527799612,-0.23647741336512906,-0.18431698004339347,-0.2722322717020864,-0.01296629374292998,0.09795698138384522,0.1770206779238514,0.23548905311434365,0.19477329756688028,-0.15916521039981155,-0.06914615917583222,0.00539396830217216,0.032182194200978086
-0.440757003523897,-0.024174312609238472,-0.013366492207741108,0.08843301307679284,-0.41373977018628033,0.06585044026150284,0.052247160372204525,0.12136222467336823,0.6709410668000522,-0.1613822811425934,0.17559878175564927,-0.4943797645104518,0.354657992822934,-0.19869690072875232,-0.2569582488549587,-0.10913426424205891,-0.11648927093410778,0.1483063875327999,0.11870347814906375,0.2856067538956927,0.17993968033723454,-0.1893660134951393,-0.15047248744487687,0.049057351074042396,0.024565810459599914
-0.35023146621203377,0.31447790453235563,-0.049483879895310084,0.1347650500584592,-0.49321746436615765,0.08318508881188637,0.007931267893276748,0.24794122369222774,0.613026843833838,-0.021648174972250536,0.11012462174636482,-0.46432081091187255,0.20955854783397604,-0.21007833916968163,-0.14611945594691725,-0.32107065591266687,0.07207255395287397,0.0342587265129581,0.2417864884924252,0.11414966290319953,0.2728998967657212,-0.10871308802665497,-0.06628372962239132,0.044917782195608436,0.0947921707203174
-0.3798396114884396,0.08595591468610478,-0.025915920649007267,-0.005734950680093042,-0.33421748124938777,0.03299370509892878,0.029663362772392104,0.14783805157671648,0.6336496250583834,-0.14786895641205464,0.19871934908259478,-0.5726789598709635,0.2569147415730104,-0.2375659263918122,-0.22619543602139222,-0.22968744118636827,-0.06748324034389022,0.11776222682890161,0.13965953347799023,0.29025126288260783,0.16504772139493756,-0.18226967090184967,-0.07717281543154726,-0.009137386922375517,0.03134306817405559
-0.4304129271909682,0.3337756411892827,-0.15825612933999242,-0.13216047421596303,-0.2684584436553939,0.1630169266763929,0.04609345678701379,0.3825927903551099,0.5333762470946797,-0.13834008735752287,0.1317981876160343,-0.6004386725368858,0.3352794080465742,-0.23989263639816066,-0.21243664274610927,-0.392395146852543,0.03364401862999005,0.04446950912069005,0.09006294056133818,0.2731403662116057,0.25703843564810475,-0.24384316808832565,-0.0021234191532817897,-0.10252526480693305,0.11552311880614967
-0.4351694185343461,0.03982263005847182,-0.009987411503471138,-0.042737810138457615,-0.29511472050568227,-0.035338410894228366,0.006176792129125362,0.09580603317137476,0.60891195309174,-0.21581099943009796,0.2855024948918778,-0.6436094981216584,0.18807477579675688,-0.23313281826330712,-0.25246162914504766,-0.16728832692728607,-0.18380233367324142,0.1884162931384706,0.12281059057462658,0.37912657682941553,0.06829650544805718,-0.20948962604341978,-0.09887096673063157,-0.04812522148008862,0.02250913959470989
-0.3724973643457417,0.3489803278348066,-0.10502950629688261,0.05140043637885056,-0.45312406194987914,0.09173108361884774,0.022997202656402704,0.261415692638034,0.5800530124524604,-0.05473828003213989,0.147773182525239,-0.4879413695530074,0.20159430962978414,-0.21078317713413325,-0.13056145240237846,-0.3262611457592504,0.06800029814667015,0.03093003344424973,0.23064090794183217,0.12611236155946037,0.2504925652797565,-0.16888207427954438,-0.050524212448172415,0.043329155034562084,0.082424307046187
-0.19936115731408424,-0.010364119983913045,0.06861728326294401,0.06490949251560484,-0.40570924758854954,-0.08079974436155281,-0.012324757374502417,0.008899249026009937,0.7305459127463377,-0.05603359820219356,0.19629292231585993,-0.6155607169828451,0.17385774623517777,-0.19480883582287772,-0.11298030401196515,-0.19264418600667343,-0.02324059217388267,0.07662170157181344,0.28174479295567834,0.16770127046711703,0.18417585297655448,-0.056561593224349845,-0.0661416900612753,0.05772334811557262,-0.022536074389025478
