0,1,2,3,4,5,6,7,8,9,10,11,12,13,14,15,16,17,18,19,20,21,22,23,24
-0.092625176081457,0.3225208061329549,0.1370704786832799,-0.10779886129870905,0.18845491783285992,0.38940465249617934,0.06983513155783509,0.13516521960396938,-0.16510986063080618,-0.23564532560618925,0.22934901220232679,0.09472813721639248,-0.0743772964144505,-0.47036447570551065,-0.17899631605048053,0.19617787457612962,0.17154138001398334,0.05357873398736815,-0.3361708314171392,-0.100919209786448,-0.043303662879019114,0.04869871272139555,0.4171357389876299,0.15410197961098027,0.32467997219448463
0.008994874085237102,0.4549493102163458,-0.029446374605513692,-0.06280299986675227,0.22852810118401648,0.38787214137910675,-0.04954462841917307,0.23034723198647367,-0.4644894694890792,-0.028106980220806932,0.18987080778440785,0.26337026483692233,-0.20272337058880688,-0.45325397296233794,-0.30042954685414713,0.3788873764281037,0.2051521510156092,0.09141343619126616,-0.47217337274759014,-0.061207197668893785,-0.1162328454212075,0.16699128680832373,0.4366998712714019,-0.06673973972699608,0.2545624683629283
0.00963017430264684,0.525831399220916,0.024134041679730066,-0.10186324094527224,-0.020971693777012464,0.3907892197958073,0.07657379466288745,0.2838002346912093,-0.21257794484603332,-0.20988474075302244,0.23164128798874764,0.2685106984342545,-0.1726619196903318,-0.41403718148479896,-0.15990433877268884,0.31938960142230227,0.3530939222940332,0.08657243016050628,-0.23419635328035635,0.09316382230493672,-0.10066829259747875,0.12537058133899387,0.44613796241801834,0.03344107129771302,0.2653965119804885
-0.5156237586507975,0.2329251756270116,0.1873707834449096,-0.09209845889913121,0.18917668554499378,0.5069309880427565,-0.027961342180388395,0.1368698023882877,0.060485817301917315,-0.5819247933639953,0.4290796081545312,-0.13538653974618933,0.23039375356210448,-0.5416611794322221,0.11006419806023524,0.09144437946126747,0.2119117082120727,0.255102209467275,-0.2346616681099247,0.022048670523408437,-0.32344983181877646,-0.001608258144770053,0.2698708206479182,0.367772744816923,0.347519325710269
-0.23924119871180383,0.35518071795019507,-0.05161337934404681,0.010109276264636095,0.05571394624925676,0.3609068942006853,0.07394363038180153,0.18059571967928847,-0.21904088906523383,-0.2843740173571735,0.14776201155363272,-0.10071611823126411,0.09148244619643982,-0.39479164181779397,-0.15191030299238792,0.26552573232490123,0.1499457747962069,0.21660204911615447,-0.2336556904810187,0.2104554698340627,-0.3117584873055825,0.18267282822829392,0.26659890215074755,0.11329781053839187,0.31909871956040003
-0.3506821289515022,0.2709051468655115,0.14094042935870083,-0.0784743180016679,0.1574207719172374,0.44446352707281056,0.011195946263699906,0.16269467849943003,-0.05274753567277773,-0.44235928362506916,0.3541181587802087,-0.0455386568578119,0.09779654645863674,-0.4803926066134303,-0.011889669909715066,0.1524150962191286,0.20581912930345198,0.20729702087014273,-0.25149430082676444,0.03356473865612193,-0.23895740362880874,0.04164863614841349,0.32793090859537005,0.24352320756681511,0.3309512996315172
-0.3795569304345977,0.261613042705426,-0.0490057589097153,0.04482174483270425,0.1336454975930212,0.33232699481727657,0.011358838795790954,0.06126121200871682,-0.2551229674668147,-0.3135813207097718,0.061402357400041616,-0.13304373257852806,0.16774210724024505,-0.4135580165174215,-0.23976545257696696,0.32978862023219385,0.14775502132327945,0.235478524344635,-0.3058626089930075,0.06561206159524152,-0.3244808214018707,0.13958011194476522,0.1936875285227271,0.12629381610032733,0.29954406957458835
0.041170349048792965,0.4838234807406601,0.04087373866287538,-0.050217319524847405,0.2087058355328249,0.37768950247005756,0.003570056287525441,0.2169820826815383,-0.34323017168629816,-0.06834165126753888,0.23774440364254187,0.28870107394599237,-0.16916994131464677,-0.4501376063669797,-0.26364188211848794,0.3235103840860399,0.28069729480014916,0.040634651257102514,-0.4385230739728657,-0.07709225298725532,-0.062219418356100856,0.1221772719842049,0.4271731310949973,0.003961707287718999,0.28723147357171264
