0,1,2,3,4,5,6,7,8,9,10,11,12,13,14,15,16,17,18,19,20,21,22,23,24
-0.23659846187297587,0.18873909586391177,-0.1545909518651393,-0.071060396061862,0.018161942779961072,0.5036735938985322,-0.45102341966700965,-0.36451195585981083,0.10137119073293865,-0.019111313915541377,-0.16758650291758312,0.011235066142980225,-0.02582356678729666,-0.08065258810279466,0.33844975290206136,-0.13714017220190114,-0.30923056004858895,-0.39609969488106245,0.3177521694747891,-0.02223868461548104,0.03216475681561641,-0.2337012317464086,-0.09829008662954274,0.0854722643732123,0.5017729730788691
-0.2064073536550987,0.12627315953658053,-0.07262341258435902,-0.14334384890953497,0.010860470297524696,0.45906746782824837,-0.3243022015953058,-0.43031099500149406,0.05321383626487582,0.010180645399703198,-0.11154003479289026,0.012275585609665414,-0.10253826630434838,-0.054330591432780774,0.38610670303987,-0.1556128935226877,-0.318893099984579,-0.4057887386152006,0.3817843860113973,0.015123072011995392,0.013242121935954037,-0.19503514552209547,-0.05780083365082739,0.15637401378043406,0.4623203775615295
-0.15757997903774051,0.1263594153856188,0.0224130604248403,-0.18369474696544968,-0.15693539134074133,0.7099878570924062,-0.1474272868593088,-0.5935443666192765,0.23566302513517742,-0.055590759447489486,0.08021271831327768,-0.21341960901087814,-0.16280598872909957,-0.0464383259344265,0.4490613200497245,-0.345243876527088,-0.23567459332396018,-0.5240567598272008,0.399058980230939,0.051167813187709695,-0.1355925951495962,-0.12251528857170273,-0.35435985038269197,0.3827096347440467,0.6153858871242247
-0.23594634284510518,0.3166259341289437,-0.24432613749201065,0.0994728508610485,0.10227222799635331,0.46360653894017256,-0.5352207998380258,-0.30242081577322577,-0.07160130273615424,0.09665397460927719,-0.2998056652022087,-0.011481728152083731,0.1042815276701849,-0.18935460676585147,0.22645576168904047,-0.09307043740459553,-0.3165014985127072,-0.45146950734043595,0.2770608277232126,-0.20630590767925475,0.12451971691029508,-0.30260545104121933,-0.15833815680836694,0.1567867797141364,0.5212707154905432
-0.2529467152328136,0.1851071710924642,-0.1468876542252928,-0.0437018550376484,-0.03178449304782418,0.5478015145496056,-0.4182347682321429,-0.35490761567548323,0.15144274559907042,0.0053083279211773166,-0.07497213223052732,0.03581609286032431,-0.02688771614832353,-0.12765844003358268,0.29642692126183623,-0.12136693063302899,-0.3165263901796597,-0.44495570746114055,0.3757260366975747,-0.005749308653712781,-0.021165703271190623,-0.22559073153456213,-0.13571475651916604,0.12239553336966374,0.5513480474976563
-0.1202479534371332,0.11247510656349509,0.21420705830409428,-0.13087886285483022,-0.155053326139658,1.1714427778118972,-0.8128158351706476,0.3622955094142451,0.1922800362210564,-0.08177259321964266,0.29275357184502643,-0.060950363274353006,-0.04436455447922376,-0.08650154695853099,0.8045975690397424,-0.9450388738401093,0.11368832079938815,0.34332767822928956,0.5087433607901605,0.48717485390111315,0.02896492386350099,0.04585374444411626,-1.2563544910636903,0.09190519591426595,1.2335874490946468
-0.20702610150129502,0.029635043385191913,0.09318670359056087,-0.2642771248072529,-0.12361048884271278,0.40905625383059213,-0.10063853427259033,-0.46684379532693887,0.13495058788527112,0.023653049607070466,0.10943997795439905,0.009777145184396513,-0.21515000185622915,0.022972471203248825,0.5338506402774182,-0.2647365802263516,-0.2748429844119423,-0.3834367082009941,0.5613439748121057,0.12681671112990747,-0.11283856812706981,-0.11628157484911937,-0.10291142249544155,0.2881874921298633,0.531375238947044
-0.20208085689761443,0.07770017315607881,-0.06793843700034115,-0.03527269520500283,0.04273808951748053,0.4536747108445945,-0.2919801198617898,-0.2091200431194578,0.2054072207783539,0.17501582741633792,0.034040935482078455,0.06806652527072071,-0.03362070113912517,-0.02306596105086836,0.2619365501046426,-0.17214776466028653,-0.26665792551401873,-0.36439357091334973,0.37747958470450305,0.0650574865821102,-0.040396589428120556,-0.17680147319744433,-0.017879533961487944,0.22630578189886016,0.6235815281073634
-0.3343747383872375,0.25913069713596515,-0.20189411855327308,-0.18677896865649724,-0.10298280442522367,1.2074301151575269,-0.6883942966845354,-0.7222906159700129,0.04761913187593369,-0.21819888397021203,-0.3003734616374424,-0.5370409465352134,0.18961319386437864,-0.1983514391218243,0.44115358172159014,-0.14442383077174561,-0.20250510656430531,-0.3259409492988659,0.17688545896424512,-0.028882716681624895,-0.01182866203364847,-0.15849554061277815,-0.5662154121013159,0.12918022336818438,0.6837404069153639
-0.20397026533680393,0.14179135968781173,-0.13133103326418674,-0.2586669455206468,-0.03095704327177885,0.8929685371584798,-0.39776671769713623,-0.554304220251182,-0.04742291204461713,-0.05842693944130473,-0.2758533897509562,-0.25502469381227805,-0.001065372271514437,-0.004361247094020916,0.5849992265802358,-0.20914104267724717,-0.18463135037232595,-0.2918866317191783,0.26050116571758397,0.0925104966960481,-0.1217894399477128,-0.16659910185762605,-0.36169413296021813,0.156049198666561,0.5833306144940328
