0,1,2,3,4,5,6,7,8,9,10,11,12,13,14,15,16,17,18,19,20,21,22,23,24
0.2200081805301203,0.32737901547987003,0.07660713573387008,-0.3707385810054382,-0.01358141035427425,-0.3137946730033885,0.18516294070073355,0.3292667687546016,0.24146299486902528,-0.15148927745011714,-0.499624066036242,0.060578124447638,-0.3130812099258972,0.003261931647217315,0.014589821943142638,-0.15139547033387063,0.09648423655805155,0.11552696631542872,-0.257126513322596,-0.07030510134648715,0.21579758583231798,-0.07762486422652774,-0.41803704163147376,-0.24251400045380597,0.20744159044720856
0.19147644598898877,0.22346782028993756,0.002552515099139327,-0.29408424844574876,0.06282086867783471,-0.3052503468384892,0.02451147554683386,0.32131999703760405,0.29361814950442017,-0.1904012379134865,-0.5436978922768502,-0.035311048626747325,-0.3068070015862322,0.007483138843998089,-0.17321037737248995,-0.23811545895759575,0.16784066831417885,0.08424659588814629,-0.19508594402845703,-0.06583720158878387,-0.028142969802488767,-0.2784465173730283,-0.4446624804226309,-0.07135369547785175,0.1512249721219911
0.16266332076951406,0.39174009904639484,0.3545901800370971,-0.2772817118161773,0.2581718173220082,-0.1132079873195255,0.06226169037644615,0.24627232083126463,0.4127926481566454,-0.08703583457981395,-0.2765846967633361,-0.41631242433399024,-0.26353783371448,-0.2599424928813747,-0.026969176772937878,-0.18575276246595607,0.20269533318659053,0.34047503743014546,-0.07840815541160608,-0.19253410347115654,-0.2864049630177885,0.1366033161851194,-0.25258047413976675,-0.10561924213955992,0.2298536604498259
0.05126435298243061,0.21279417799870753,0.10352492397047186,-0.21384838326142955,0.2456880661532022,-0.10095459568710337,-0.07491562662947507,0.18344141094699687,0.4356607469242595,0.013465091483114386,-0.32061035129590226,-0.561938777776381,-0.13068523815130226,-0.28239887434447397,-0.0649721572503609,-0.17976538303236214,0.2668074215919836,0.20221260699892799,-0.19935630454832878,-0.1602159452721321,-0.3933389921199521,0.09246619942052331,-0.24887166380289177,-0.07627156985740315,0.1066234332407131
0.17223361166240883,0.25552390950075815,0.1996538979824569,-0.2526986126220544,0.24255224450564106,-0.09807347698294713,0.019482441834607154,0.25184174396452313,0.38284279380626685,-0.06551678589802014,-0.39074419375525465,-0.08470522482566284,-0.3406651407197325,-0.13279654845713834,0.00881871059579221,-0.20135329529688561,0.2449790813516557,0.20090605648023357,-0.16045237752745756,-0.14117843875134403,-0.1467661943987241,0.06224630287631123,-0.32032790692957164,-0.02967556754411955,0.22891095418891433
0.02097390420640434,-0.7726756929699446,0.0684681158673637,0.1055056576974205,-0.31192427101916087,0.8778742496321952,-0.34096331754413284,0.10816832445007149,-0.37324637487295836,-0.45879411936330955,-0.4685885042416715,-0.70638134612197,-0.7252516717447323,0.4064776272214391,-0.4991042598222117,0.11098714695556208,0.33324172355504933,1.5864454199307252,0.455679861001555,0.8806822977762754,0.5946163145501311,-1.0271260705380612,-0.5749951443213424,-0.10484322652238036,0.8144461521339813
0.3444411232991256,0.7148833939036743,0.7625241074286625,-0.37619145907259355,0.021735664037770552,-0.039813931903757836,0.6879707394487087,0.20165576696800636,-0.1699716347881865,-0.4007736862363189,-0.44045549077241264,-0.36063741810872135,-0.8423072217189019,-0.3088634183980398,-0.3197401311326687,0.2667908479725133,-0.11673024057009912,1.1875664185483934,-0.03606230064444652,-0.13032464060868992,-0.38249740329288523,0.38240956875145776,0.0655655207631636,-0.3088815366116623,0.0778769010134689
0.13233037698631808,-0.0675703059562594,-0.03254519370965235,-0.11945174500953523,0.14950195254618823,0.06424805996225531,-0.21609591977839776,0.20696210407572832,0.22344667759066672,-0.10798922707436454,-0.4196107460568239,-0.34374951554603,-0.258754456194808,-0.04456116192929995,-0.14173874856553223,-0.12798439552660656,0.2997642687434221,0.37178750512471476,-0.17223911710225373,0.07142267421207914,-0.058892510746259376,-0.2170493711956016,-0.4153390415857466,0.07904480424787808,0.2410450032929885
0.22201409167169744,0.338531735271189,0.21935751252266078,-0.34864810042532784,0.1888476805933877,-0.24467876440197314,0.06350713037534757,0.31159371787150497,0.25523089656176556,-0.1998832290956621,-0.3786751164619252,-0.17723940422396986,-0.34405148056190166,-0.1323389123645859,-0.030416122796400564,-0.1808521126498889,0.1619576087341591,0.27751281698299074,-0.15153059060140137,-0.12990415128348234,-0.10525664116632347,0.008928300174304656,-0.23679184727741875,-0.09352754838244584,0.20517721247969034
0.27353155445308175,0.4772789392111483,0.26823618428898377,-0.30465762634058696,0.13632136505090114,0.023989361976059505,0.28246617768742577,0.3638171242695217,0.3286955949257615,0.03195522200187933,-0.30535795306106567,-0.31729379529959884,-0.40624471525077555,-0.23135505539786658,0.07158635290441871,-0.23632567034833024,0.143422725951973,0.25833805269117727,-0.2141282850555009,-0.2484888661982206,-0.2978860867011245,0.2922045735391698,-0.13754640610716884,-0.15424014924078489,0.15600359290270713
