0,1,2,3,4,5,6,7,8,9
-0.30401852079746705,-0.2991418674777873,0.16538053452029566,0.2480550111855651,0.26411448209839683,-0.17022686304331147,0.09153870087964731,0.24518741215575302,0.023709481060483782,-0.053533126126671035
-0.3308737985157181,0.09719134788889515,-0.10481966666226072,0.1030810071699363,0.16926018415766506,-0.32674821522954745,-0.08141042978980167,0.024653871647014252,-0.24101778765572726,0.19202935444111607
-0.4117267769957173,-0.268642567118898,0.516958620844547,0.3531210609875199,0.33655738776254396,-0.01827393005405125,-0.01747547866607614,0.4790910063230834,0.13403157546144773,0.08375338521553465
-0.4241959493574515,0.08278774667665276,-0.19207869365976674,0.17252327159598946,0.22091039910859422,-0.5472067568460885,0.024132043364851943,-0.3338645714347242,-0.24609344392768312,0.048094564112733613
-0.4223502708218386,-0.17348874909147063,0.20826586724691548,0.15144802644494268,0.18316766030725737,-0.14678612727114845,-0.16228329160647756,0.09248367181462239,0.014090492205294177,0.25029759880533087
