0,1,2,3,4,5,6,7,8,9,10,11,12,13,14,15,16,17,18,19,20,21,22,23,24,25,26,27,28,29
0.09424516764438938,0.05020266788774124,0.3768963304971835,0.35639557994630494,-0.061870272432568874,0.2780898515541374,-0.42522626841279626,0.40794410414495325,0.04484177960986586,0.18113905828312307,0.09193586899346373,0.7256541116540631,-0.14202626523712936,-0.040867379463279195,-0.2830707312987226,0.2099875199108976,-0.6775709842766456,0.041497961863959806,-0.6991313697529795,0.15771145701659173,0.20499266664270618,0.10968405472438301,-0.40081504679110974,0.0030956659381180186,0.366992488331048,-0.06092691066602121,-0.25333913935462243,0.2058622167743719,-0.3995773687129485,-0.27637710668390275
-3.0490513452665446,0.284662950557771,-1.1358031125080899,-2.0126244876755264,0.0031885730601483053,-0.7400345066957859,1.5706423002138876,-0.8175210373739303,-1.6848988466867756,0.3243634789518078,-0.22897831898673007,-3.434323847084249,-0.3220738752702311,1.1246090949716059,-0.4980235338500901,0.5454552262830716,1.6899171716003873,-1.801870815879267,-1.9856099368929787,1.9489724767138985,-2.3349404165854644,-3.7486167110907704,0.636686037776856,0.7257587088889729,0.4413240235472796,0.3426358610161825,1.1405818584577916,-0.21745899512396646,-0.63247933335266,0.4257021604345025
-0.3075140687924567,0.2845139715061396,-0.12432893494321265,0.33079236269734946,0.20743238182856077,0.176586348978371,-0.23094612805942905,0.6490251632173428,0.1025584990795109,0.3423794500802326,0.2861806327438579,-0.5136793426693566,0.08886283099350327,-0.10250470719260145,-0.42965862775691377,0.4430277880904339,-0.755656344170508,0.11820321818209295,-0.15784854235976897,0.11160993129651679,0.47970255795800704,0.21426262945718375,-0.34039151079652225,0.3986345168009641,-0.047449981810578995,-0.0737734606351993,-0.1532291998924316,0.07402461951420664,-0.17419796024291662,0.4652267960184638
0.07657766634709477,-0.49430966151575695,1.0620703398298459,0.2599397065145765,0.15007699681890044,-0.48337459429267665,0.022163614455641908,0.0773577421259204,0.0062663470184137265,0.399153732443997,0.07483592372538486,0.13052580974598268,-0.7133839166462398,0.3695582335611,-0.14018692377291622,-0.08919040362071477,-0.942350695698522,-0.4421161757978984,0.1788173499746014,-0.04516363394343095,0.629193196669762,0.11676953505202796,-0.532738682284127,0.6204361828236099,-0.23725224829131245,-0.1642207876548368,0.33296814506448247,0.4944090346681078,-0.17280232773418794,0.07553667223114437
0.47471969803978953,0.4226379575803329,-0.31056957416838604,0.10980066062708096,-0.4140070119509698,1.0145285207062877,-0.9964282859606306,1.0790045439440192,-0.5824691794044843,-0.3261711854792579,-0.2579018333538546,1.3361850834622204,0.3900434411223535,-0.76050511977402,-1.259649170038208,0.6671542673794659,-1.3216073290990837,0.8562056329053522,-0.9028204918011201,0.5364435384016999,0.8794329635242258,0.7737405775039381,-0.17336110006312752,-0.021030858961234303,-0.12879914701120565,-0.37166136730011273,-0.04396511076471225,0.7238918062172426,-0.020550114835220814,-0.21334548498664854
-0.02618748394899345,-0.02050127352688011,0.6760286490351133,-0.12442450869898368,0.2722173427773297,-0.2865376152640566,0.0762103017816203,0.11216811996952591,0.11422971181958513,0.22463802786160816,0.4878982624944721,0.644592130703127,-0.6453368938045989,0.16954921740328036,-0.07255758459210093,0.2972286652820391,-0.6488768773321353,-0.4453120526383887,-0.30395400993350086,0.1416904417106008,0.3734235376800587,-0.14603196651662206,-0.5219512434852559,0.42546492251438106,0.08305300563410904,-0.3293940285573778,0.02027935182182931,-0.2080660877211061,-0.617260279271099,-0.3793218597348855
-0.3236329069461493,0.4037565013048065,-0.2149910935083553,0.34455592041162103,0.1521045763779999,0.3380315861192764,-0.22097711784913343,0.6969613678517812,0.07219714984957637,0.2604117657227697,0.5110257917783997,-0.26588150069331784,0.2727584360805414,-0.20673527123216567,-0.32690221453653967,0.3483211024391423,-0.7781197099087397,0.15285575871630083,-0.03702883955609346,0.312066556958645,0.2649088921590664,0.09272209844367713,-0.6319562291596298,0.042112706791620325,0.029079699705278662,-0.015887214523679864,-0.48120326585579976,-0.14684521150690455,-0.18380147969654348,0.33674827150396247
0.0423102447831799,-0.12843592746656224,0.3685311715642409,0.32085931815889923,0.33280446017063325,0.015195372975880837,0.1965110892144469,0.24776724411351034,0.26688115445957766,0.6008667674268989,0.37868462873423103,-0.5536749890995535,-0.27477617817568695,0.14085923360338928,0.13009272068277472,0.12839662839208635,-0.6095476262046009,-0.23298099579696094,-0.09423999445644156,0.21204563513821267,0.37647975715323645,-0.2742739948009528,-0.47485370261643156,0.6414779989861535,0.165476550174188,0.10030142325172821,-0.1555734116664005,0.1655067410225956,-0.22367763544458363,0.24606251700213308
