0,1,2,3,4,5,6,7,8,9,10,11,12,13,14,15,16,17,18,19,20,21,22,23,24,25,26,27,28,29
-0.29758813527333505,-0.47400762483502146,-0.6679168643078299,0.34006528873407416,0.1400774452850378,-0.009686680940376963,-0.41819886300934345,-0.28212848845107846,-0.6801931601419386,0.23344873792236884,-0.3327593646165405,0.5267291963330584,-0.016830841012540884,0.27993920251037463,0.306224594028337,-0.0321004490408945,-0.4765316286069276,-0.5545698907790086,0.48941372584367,0.1733188176284093,0.7714748848887399,0.6131762939523652,0.9470183359233252,0.9012027247116249,-0.07758308972891396,-0.317488196706783,-0.09576351429537829,0.07575657159662054,0.2600302828420915,0.4221530371404151
0.3300763091065304,-0.15962621339696578,0.04228943795404327,0.1893200580017037,-0.1106535902546496,0.102021937900735,-0.7146210080580491,-0.5180440139280496,-0.4442717039564736,0.08271163531981214,0.20362270718364092,0.2709743344088504,0.1410070621134538,-0.07336229378570884,0.4351982189546517,-0.14034728804491686,-0.45895094678669507,-0.14567716796132765,-0.024575246606334426,-0.15013018250885024,0.21349337118245984,0.033819502067408566,-0.09734022629829701,-0.2956436939548033,-0.4893687850384109,-0.17433226194744625,-0.4125555519984215,-0.3267587994850268,-0.12948181157256985,0.2232050853621725
0.178609824515816,-0.026102303286904206,-0.41874543226370614,0.4858819685184418,-0.048143584652978445,0.1010487899256214,-0.5956015618693056,-0.11905948548910968,-0.4447474079320764,0.07697884784119491,0.016561394676412024,0.48343052388178614,-0.16283836420527215,-0.14375411361731272,-0.07065462404052962,-0.2046950828344093,0.020415746231329877,-0.35567927602717697,0.12619727023807467,-0.2978936090739416,0.2843191828868666,0.4188527682733788,0.5439362017285718,0.6264172427667238,-0.2820626983884969,-0.39184542172023407,-0.08552060542823574,-0.12115026153195443,0.30331421886522114,0.46474465690745903
0.21412094414156296,0.3662696042465364,-0.503636786877178,0.5449846943991938,-0.35802374529195174,0.2872587563812917,-1.004459125278644,-0.4678824162501117,-0.1873310928014774,-0.27457015027987824,0.6603069605590962,0.25694233841197955,0.004065347819920708,-0.3375472272741923,-0.2142665664454648,-0.25437146227585106,0.6563837426684103,-0.23702372234290983,-0.16656118736902487,-0.45858865209749755,-0.040385659069875054,0.017796970343976697,-0.033259447948216066,-0.07615898931619079,-0.8240692099174903,-0.30815127965644384,-0.3416941648206396,-0.28308664909548603,-0.23672940719813598,0.15275398301441168
0.13525706921034972,0.27855952157156183,-0.2825300558385919,0.60412124226052,-0.2798442114392697,0.08743944052116043,-0.8555158324813562,-0.49410258913124566,0.10738286933047227,-0.23437491845325623,-0.030890750127271747,0.33755115878424835,-0.5033623061995905,-0.3909650735107768,-0.24680960484422387,-0.545724454188724,0.3260495021832032,-0.15747981293564883,-0.01155859388633109,-0.07329465938968828,-0.2764705563136077,0.06850263558854609,0.09629882739547296,-0.49801564677842985,-0.5529275406096336,-0.37141385791263853,-0.24224687046568505,-0.4310514689975997,0.7405294855292555,1.018751937869587
0.0780844792021843,-0.2910028959045302,-0.48064112153446514,0.42751870286601046,-0.13461594083351627,-0.009995121723017539,-0.6025684963008716,-0.37351095616946567,-0.4860961050633494,-0.010078340089980783,-0.0029616229884496027,0.36641113554537047,-0.19341251654457586,0.03266550876644486,0.07353184036252665,-0.29337803765286286,-0.283031431256856,-0.2964643331537906,0.4002117899097191,-0.0683093757075243,0.3403961911429811,0.23812739276759004,0.35381759614034597,0.18796409884331908,-0.31978134340627506,-0.46656427935441247,-0.24785325291381494,-0.12223412802314362,0.174561138398006,0.2553284749809346
0.5702812879220905,-0.7916932900575806,0.46451417915646237,0.12893614481192536,-0.2622025931822911,-0.8411174171663176,-0.6705913996497909,-1.4957888998129283,-0.07526653668873778,0.267846611518739,0.16766614687075684,0.3544016101401948,-0.12169914624919104,-0.08234581161934952,0.628441216478893,-0.09359120830037009,-1.9848092220319693,-0.3061157677404665,0.3534334708577475,0.3547764464164722,0.6750902317401385,-0.10594793496442245,-0.3396834754494938,-1.6892118092757975,-0.015708289089108252,0.060482815649675836,-0.7156118578869919,-0.4803802614814445,-0.45274749967827244,0.18686906317184077
-0.6615316055556968,-1.279658575244835,-0.8199221174799882,0.6161023520406828,1.0378851963636113,0.6259838152074498,0.04356607083051763,1.8463586142595223,-0.027899554581251255,-0.9005715579328123,1.279268228531724,-1.0340068645524205,0.1850420899996517,0.4252091784792709,-0.9981406659530457,0.31326149981510637,0.6176685469199785,0.23727270688555885,1.5987179723541196,-0.18695629613153533,0.4192961467347612,-0.13132377400071782,1.0466497168834556,1.0050400422270496,0.5445711307729783,-1.3267164241155227,-2.1601202792369927,2.6228256635220353,-1.8251718969405937,-1.0820240807327495
