0,1,2,3,4,5,6,7,8,9,10,11,12,13,14,15,16,17,18,19,20,21,22,23,24,25,26,27,28,29
-0.4008068181877151,0.17750528611875133,0.16607249215629236,-0.12632868934451663,0.31587650171025505,-0.3732693337315345,0.003959354765167563,0.42300743249408007,-0.8218793604423518,1.19568176554112,0.7229758494365464,0.08129495212073774,-0.11509303848488422,0.8536796374841493,-0.5147643956356541,-0.45766868873681377,0.10198675032807042,0.6555367665685654,-0.1755513099053755,-0.4357977237573217,1.0553506582077703,0.7093781407131122,-0.5956702192967852,-0.3841833360968342,-0.8280670861614233,0.032355032912996795,0.17025518821568558,-0.3099707441549325,0.8321437074379673,0.01108076049311024
0.04622283048073889,0.03312999521973337,0.8576262125376878,-0.9530955806845636,0.6130201112841615,-0.6509864466293236,0.503753980437816,-0.2620398516521771,0.09853703137813065,0.7751386814701651,0.14425810203292175,0.18884233397775288,-0.03827902673381977,0.4422609692498429,-0.6447430764499856,-0.176524538849721,-0.6373837955996241,0.16589211630075051,-0.31467324483052694,0.150690030816963,-0.29479762692119077,-0.18078298009205498,0.21366485204235608,-0.05954743522090255,-0.8853007141127515,-0.17871496531327516,0.15617385007638032,-0.08984469732888427,0.042867742719372666,0.16275921905646845
-0.5219332786265426,-0.1784408605305278,0.24464929850760792,-0.27075787826231124,0.391108322061831,-0.4925625389837139,0.1648759359487529,0.19383578236832075,0.3598388342838427,1.2145333793960766,0.6756375023534709,0.11143731690097486,-0.2348866330622126,1.1289671659383624,-0.04907333156069944,-0.018583405561422416,-0.6817795698624568,0.3022601180680561,0.03478548987827031,-0.31929632154043824,0.24732426990589026,-0.026197168303745348,-0.14375386661817946,-0.3302218954942632,-0.6285317957687204,-0.13192104109787878,0.700124507895228,-0.33524839766707526,0.06582893920704141,-0.1472678654377935
0.2690117207663812,0.6661765174799452,0.7899860293095613,-1.028268382748349,0.4790948621199098,0.16469582747097275,0.5216296359525785,-0.8568221400943324,0.15692922873363765,1.0062451778956614,0.20389030074354259,-0.22685224393111952,-0.2383206898840434,-0.2176305373019208,-0.47591748863995753,-0.8504542178573664,0.5230071651454786,0.26220776754844916,-0.2649426829070663,-0.0944747855459989,-0.07764575868538603,-0.49909166469441163,0.41879565840424526,0.03130794698335003,-0.27085760492785066,-0.03511978662954305,0.15475318964313456,-0.3299270995760149,0.23169920092442464,-0.3059377628489003
1.091642966983069,0.6102329127028367,-1.1989399901602646,-2.4427821653323196,-0.9081428415612337,-1.5244877025334502,1.2108384215428065,-0.4147314862759621,0.9460704352479243,-0.2698138511563253,-0.22189743773583895,-1.1130812071105818,-0.2117898882325704,-1.213043062028217,1.147845545873182,-1.3070057451449515,-0.8937614017167322,3.5695446350613294,-0.11615374189277333,-0.448589825072638,0.276620771838129,-0.9315467332366664,-0.5897924353089273,1.2606267082145777,2.5116550546736724,1.534467005693175,-1.0960692934923357,-1.082958921171673,-0.8528322295274954,-0.1657416254520146
-0.24759694669942614,0.6700661857950656,1.0272286627014935,0.9382682367755497,0.2990268149507233,0.2224956892672473,-0.20659985011935067,0.8928756497285933,-1.1394778720843306,-0.18268363324842476,0.43778742681247185,1.0809487093442836,0.4340014996025556,-0.5887280533110321,-1.0168185339499034,-0.7581925522745292,-0.1675299492621923,0.0018112774455162116,-0.803931253099238,0.054980934270107494,1.6314490738477543,0.7564122498570527,-0.18058928462025065,-0.022606112652634607,-0.7612220149482356,-0.624905131962236,0.056871791189185165,-0.9738443908485548,1.170330112265001,0.36685044324503396
-0.39790283241056196,0.1486070657578406,0.5109599504494464,-0.7893309191926332,0.14038586053771007,-0.21508882474823962,-0.025129227613137406,-0.037109194959100485,0.31471330383673585,0.593606010203896,0.3803211096497802,-0.15134224990617134,-0.17301907658615073,0.36224305075972335,-0.27845111365250486,-0.5362557792852692,-0.21288324645604975,0.21358778552012134,-0.20316415090791096,-0.05726240790524351,0.3823347038065145,-0.21293261524974763,0.1046000696282342,0.12094076524898249,-0.25754109246659135,-0.2037473513666113,0.5919628754711296,-0.22611691368408665,0.4212777674622144,-0.08966712226843257
0.0075010713330876415,0.3951711426620146,1.029306930107738,-0.9197496856120253,0.41029273936318883,-0.5332266520732413,0.11156464673474155,-0.19358649356644783,-0.755394235847863,0.21650105065665606,0.329043327605152,0.13789698382536555,0.13365049246993213,-0.14263521023632691,-1.1576516419644307,-0.5247715811767218,-0.3957868235058807,0.14038496502300934,-0.5477163356220881,0.3103536488517955,-0.05315829027142439,-0.23620280363258195,0.31513131551843593,0.06523891724731727,-0.9540419931624531,-0.0671276141129897,-0.08428985573268781,-0.10326395137980139,0.6022551103086183,0.05689592024716669
-0.4791230459396062,0.26923797228298835,0.6662472216120122,0.2536798766143334,0.2172387184084789,-0.19292905952461448,-0.33405271550608834,0.35835779125680917,-0.004491987069615588,0.35180763656511727,0.2510278412413414,0.25236083604667997,0.02349996782382283,-0.09392291706189348,0.036256944599527274,-0.8790247345000998,-0.1438604838604203,0.008854350482089894,-0.32812295349167103,-0.25704415708838685,1.23242169008061,-0.044894767431340764,-0.3678525978853072,0.35762256313149277,0.08132452427306112,-0.5315103353881704,0.8215859043208965,-0.8539078483935338,0.46066817776380836,0.27067281290099
-0.7216660357319683,-0.07083004939498438,0.23020394765932842,-0.5330131609614378,0.19396774396772817,-0.3870075508609701,-0.07557896289909338,0.23844615943457237,0.41907658322333297,0.7387245746200475,0.6047467249884096,0.08825439530810923,-0.10498509798216149,0.647679275734012,-0.021043634888441524,-0.32363408820148176,-0.4351681010999458,0.20130445528328314,-0.08238802833380822,-0.1489439656729888,0.5529449578827614,-0.23003105144654828,0.004713161076885724,-0.029357825568101053,-0.14475620828461871,-0.32598466038244805,0.9212633573248744,-0.25580194577121673,0.196676065805322,-0.005620318639217324
