0,1,2,3,4,5,6,7,8,9,10,11,12,13,14,15,16,17,18,19,20,21,22,23,24
-0.046271902780664044,0.24354576594206054,0.18622836859272932,0.08875910105296603,0.23204911901143072,0.021160934914519782,-0.42651261891374964,0.0910738712469126,-0.05455007801081093,0.26114867980511874,0.001369881680996683,-0.029539241206486707,-0.25598823599310694,-0.3115802080573768,0.019635401546441,0.5385365923835257,0.03626485559931812,-0.20798215018191607,-0.4367708923680729,0.19271088408114465,-0.6004247121184374,-0.31089633809018685,-0.34407488929351876,-0.07837560012313972,0.3690202206910639
0.47594219260198556,0.09884611138361393,0.3596511387006496,0.12955707750328233,0.39432037431821343,0.011466037876676464,-0.5283305296305525,0.034654956897209,0.03140310776381086,-0.09023103272803351,0.30885125820489623,-0.1058432949605357,0.0038808508710234586,-0.7578233150639276,0.07619506439017884,0.41739510763594007,-0.2740034177184872,0.15656137787002197,-0.2700602289427538,0.16214923904187037,0.0005304516360661497,0.10310715633612347,-0.190430484990956,0.052795780388451126,-0.08796567340316828
0.45783141626523444,0.013840693056710094,0.3085984120904907,0.13182344094114046,0.40999119777141546,0.004973764776993901,-0.5559162661418126,0.04577933330041228,0.004491047727354138,-0.11468160327909589,0.3457523422349275,-0.07175287004681677,0.047278669124294286,-0.8638324603322841,0.023954873204016423,0.36948235538187535,-0.3734817964851156,0.14429753064641915,-0.14407517750786272,0.16689174932620476,0.1188313084651927,0.15920305655743008,-0.1543791751494705,0.07829978572489979,-0.12755632104449136
0.038247755635017276,0.0876278510825678,0.1081187822990566,0.02963409422456604,0.2633172369365244,-0.08190958374381933,-0.48827914405351247,0.14970566541876648,0.10405000571185777,0.08436582413995056,0.10094709030085698,-0.06465754521933574,-0.10848928315322573,-0.3066052430437278,0.02341106143819375,0.455049903393375,-0.12835397943123206,-0.11382106150520482,-0.37751078490258067,0.1891607790016338,-0.3805851902173576,-0.20893938186935743,-0.14214771254056474,0.04820523626358847,0.12540748152445702
-0.4443514943799075,-0.2009298352639137,-0.09417286392951521,0.016184746596414,0.20050922772118682,-0.15188293572253247,-0.5488678077758721,0.25639719742180195,0.12795501124014075,0.20855167512669323,-0.003220631170423587,0.11621816285609342,-0.2051730575309515,-0.3250549020609173,-0.1781991223971565,0.4589790376034374,-0.039633763220139666,-0.31691635006486873,-0.24280513153498845,0.29217138981527185,-0.24156048897606522,-0.33375287454428587,-0.22805789370883064,0.09567694552067647,0.26567427387482767
0.12187977586414314,0.1375436853471669,0.07023307972341439,-0.060087687108380874,0.2432165707386231,-0.07944438040057439,-0.43082516131047194,0.16472005555068747,0.1280561041630037,0.056565123853549795,0.21842764530885392,-0.08115112738516553,-0.1096310159313437,-0.30134392319189907,0.001497446781327312,0.33364409288803426,-0.11402856373581646,-0.12419394023601027,-0.3313768249268206,0.17018919805526617,-0.4295348859392748,-0.196501223317155,-0.05753322510841388,0.15409369898385383,0.029614382323320924
0.05048799793600575,-0.0787398405452256,0.12251500071155366,0.10835331848472454,0.3110938187984951,-0.0013775146013970637,-0.5237983466087026,0.17021602154272436,0.01861004953680342,0.08785706594395966,0.08890052542781453,0.010406060234513279,-0.07307643964576316,-0.5736405435818566,-0.11902314349632223,0.3522238220386958,-0.22577460361011345,-0.04915660316888942,-0.12991167612271848,0.22989056089986085,-0.005515847692882551,-0.19167712131584522,-0.20537454285326642,0.010027101961430498,0.11174625585613328
0.24068077116688535,-0.1293400576121074,0.11374097587975583,0.11642373969654324,0.31417692993290314,-0.024504769156791496,-0.5928170847221818,0.08666137448201121,0.025812165341068435,-0.03712249053561449,0.2302832062945072,0.014518120855082044,0.047628601751352515,-0.7221496979258933,-0.14214419205257361,0.33536077372627837,-0.35142350319831395,0.0334565016907607,-0.050067582306222866,0.1955589104153076,0.12395535417230273,-0.008280971310397652,-0.10039280341100729,0.0728355820869067,-0.01708450649109624
