0,1,2,3,4,5,6,7,8,9,10,11,12,13,14,15,16,17,18,19,20,21,22,23,24
-0.34547882407476,-0.004825442186634257,-0.35188231312181234,0.24471077831951268,0.12752256046337865,0.04370149016054015,0.22291943688057436,0.23439083820533962,-0.4883853004467846,0.12326279045702924,0.24020207856182813,0.10342108907294793,-0.09200439178503118,0.061339904240007646,-0.5041417833712115,-0.3984061125593167,-0.08151489356615077,0.10440869138287497,0.09872344391913607,-0.018307884647583133,-0.013962304006036628,0.08113682161355995,-0.026118555848513438,-0.2150381369346023,0.13186491632402947
-0.43229073645765664,0.24425879284544538,-0.21497824299790919,0.26198832765654667,0.044934315954577246,-0.020170101822511978,0.25972212894559343,0.21750853455491778,-0.36856059368802296,0.18224015274716943,0.10330709950784207,0.10360018431765183,-0.33523758750128463,0.002177975186663088,-0.2317969352112402,-0.3159930627889818,-0.19441479229449898,-0.02380383570367755,0.06282178147702824,-0.010575599270204409,-0.091264890360309,0.15388503581974727,0.19903297990479032,-0.13707291177143063,0.11513901918239701
-0.6558088121132883,0.24266708294902484,-0.33026173723958735,0.30739433492896573,0.03449128782719928,-0.17041948023023257,0.17447734074268786,0.30191640056200064,-0.4086316062764659,0.3797015428680512,0.01728027831770776,0.21998958390845277,-0.42755187425122515,0.052784998417259574,-0.12477053608858617,-0.16501357871207029,-0.17898870765379196,0.11223922184762376,0.04568440008125528,-0.014000238880622592,-0.2541430442234637,0.03888343800965902,0.5241916581587351,-0.04739886237482398,0.0844915578051201
-0.43979227460642417,0.865496304189879,-0.18798006244370016,-0.23076345548609864,0.7564430334102771,-0.6015515898956042,0.4040784564145352,0.3649880454901399,-0.24919039636689017,0.4601950546306788,-0.5099083175303538,0.2017902315156832,0.13024071099332682,-0.12269181494451471,-0.5729142099168,-0.2639304587634401,-0.4842088197076834,-0.30347677694032754,0.18997690177793874,-0.7225830530852315,-0.14048982638943358,0.13124083772312062,0.12619371868971074,0.43392765059721783,0.19537914610911367
-0.526607779390104,0.2698392478240075,-0.3417935540292631,0.2834867009789051,0.007512522511380102,-0.1466544622168149,0.2578768421663118,0.2953361167661448,-0.4173788943714592,0.2872260625565876,0.06072072013195106,0.20991169389600187,-0.2616633318992187,0.08181282564081249,-0.2993023148419349,-0.16563517220213025,-0.1980436373925402,0.0011651326401974154,0.0427456982565149,-0.024345920314691637,-0.23148345643175117,0.09421658393389702,0.30244057733580243,-0.10723013484738791,0.14025803534667447
-0.23799542692037748,0.18688217680192337,-0.5847307879793011,0.17313047155306724,0.2989257594956733,-0.2123485996938691,0.3747800271677503,0.10766848664521352,-0.2862662526735592,0.11401899532323417,0.0929086912013576,0.04889526607902864,0.24602038386355513,0.1228114790807317,-0.4650587597684753,-0.2799303018949942,-0.10554696380036109,-0.005817137865714612,0.17119350679147857,-0.32801166833081824,-0.05195823783958053,0.06265375468137628,0.10410938849756056,-0.07698732262462293,-0.023419105931497406
-0.23661187686308202,0.4661778765890131,-0.009294243351757131,0.3248575623140372,0.5217817177385489,-0.21064403748825714,0.44284290366162654,-0.009324180796374882,-0.17922089140121017,0.10946514999523592,-0.08083177270568058,0.14668846394979507,-0.2189632381965019,0.07127022673397718,-0.23039917412502656,-0.23708262111385706,-0.3353055254910924,-0.060807102886596257,0.24802201377002037,-0.3969127937032791,0.05639886436561764,0.12865077940892028,0.10249619415783037,0.027778623370523458,0.05681829951864994
0.4745976342438896,0.45740300926122046,1.0288289355356175,1.0776627635428464,1.3923988880294524,-0.0022568130835188124,0.7014039884844343,-0.8011647640592264,0.4946792555486337,-0.2923832860784995,0.1548705345479646,0.11440368207899804,-0.6499371447014948,0.13181538124544354,0.3106966213530053,-0.34849524302177703,-0.2567546965747186,-0.027904748643035698,0.7197141559373164,-0.4297594453037173,0.9289631031319823,0.23710885622857142,-0.5305324267867546,-0.04013172894207995,-0.1604169974762746
