0,1,2,3,4,5,6,7,8,9,10,11,12,13,14,15,16,17,18,19,20,21,22,23,24
-0.19362857642602727,-0.06589208075120036,0.35601669245697687,0.1312215196519623,0.25338377353943853,0.10133547365732658,0.313577727494523,-0.3382252895052869,0.004334957383088638,0.3513868795687031,0.33776951873847294,0.10150465557018035,0.008292354746163098,0.4739952943392594,-0.05218757518122926,-0.14528701843538594,0.31432208992516764,0.004385430334313905,0.15828229345556336,0.2746453897559521,0.23141677741457167,0.5300209782698928,0.5035723064628164,0.07995108767966133,0.08887009367635107
-0.2893209730156085,0.15720983352438528,0.09583955051026054,-0.08142923210429887,0.4236913207131897,-0.12107773631330022,0.4541748233120458,-0.06954880573084447,0.18119937154422663,0.18651842783997308,0.36621961744525,-0.05623591918712279,-0.05796574497835419,0.15653866369375155,-0.03398464597410278,-0.23824586667159597,0.5308787807101033,-0.10245961220000235,0.14949744409671942,0.23196428715726206,0.19082560703579016,0.479887603393078,0.4672030156436865,0.05675966865871958,0.01155879974135176
-0.12244484770861891,0.2617684036405701,0.4425264425655536,-0.13059764484058192,0.33924764402711316,0.608165909087098,0.3137196399241527,-0.4085453986610455,0.27009149460607784,0.2915935412783878,0.14382683239894753,-0.07103286271163546,0.17790814401634655,0.3712254214369608,-0.025476608596133796,-0.2066868274378328,0.6017612950539095,-0.09138542576384838,0.29493995562895875,0.053168798499014694,0.4443321209776927,0.48045316068095795,0.6862412046625019,0.22589791075926796,0.05809670364045162
-0.23600806232327495,-0.06773405916928255,0.23659291298421622,0.2087489648605416,0.3100615933538218,-0.24707372980763645,0.21123464471831813,-0.14874141258616358,-0.19685118640245708,0.25123440507581124,0.2821062417872847,-0.03369920349581771,0.0220790741242449,0.5052305393420768,-0.03719994183356212,-0.18936425759204614,0.27930335119598,0.10163737902277166,0.19099481058472817,0.3400129168777366,0.13258253831178246,0.5689394269980322,0.3435386820793346,0.060226285218423645,0.18548745971139066
-0.266223623800773,-0.11476229740235193,0.24002049733126693,0.14421206495246333,0.2533218577538651,-0.21678450550978967,0.27572111531660504,0.08936666903531104,-0.10972472179927001,0.22699707195509217,0.3971253708332252,0.0061663373468224545,-0.16788436581200974,0.39527936437121164,-0.107800703192043,-0.16063669131742744,0.15212256635719726,0.13860252163761558,0.12781777110554754,0.2916279699686817,0.09736064857045568,0.6043872089940743,0.24630194867911487,-0.04613517662046598,0.11187709830454841
-0.28948690351674955,0.0037140032420093223,0.26836936202654865,0.1160510506054234,0.3052111633463836,-0.15629120815773317,0.282379878729741,-0.06722951433218835,-0.06467118553382029,0.2464133994426593,0.391117961033721,-0.005405488449013539,-0.07140401143169593,0.374651554146763,-0.06281441163375588,-0.17047153462270417,0.2800294379501826,0.061212864008212624,0.10148073198541377,0.3118456059068964,0.15160026508222704,0.5540851143257886,0.29611290672732826,-0.027921191526013776,0.15264062967047096
0.39308265318042623,-2.5582165803881645,0.23308046503206792,0.058665665691236005,0.31881867635081107,1.0662112535532717,0.19745697662677614,0.3060972513847739,0.5274276615552854,0.6199865842224759,0.32669605042470634,0.23499807398791045,0.07560827443874159,-0.3636277123787134,-0.372565496720894,-0.7069029180821617,-1.3540052523188348,0.2370559652549379,0.6951049331322661,-0.34774542761188165,-0.4528696230038501,0.5626445685002639,0.24052383079329953,-0.05816593056859592,-1.412785578054682
-0.2156934336818362,0.05411690417611929,0.1697465053352832,-0.015062076615660737,0.356585266641597,-0.20058788327576266,0.3238269012077362,-0.007196828909828224,0.08444437079525786,0.13770714377371723,0.3867213063481882,-0.08011039628140972,-0.03355405092226875,0.31844345659573314,-0.05898695199669872,-0.19164007532675542,0.36556805384288205,-0.014612823462495197,0.17039955952268948,0.2112639605698296,0.13583396933657196,0.5277287530642508,0.2904539773251794,0.07505059985970129,0.050255084405842414
