0,1,2,3,4,5,6,7,8,9,10,11,12,13,14,15,16,17,18,19,20,21,22,23,24
0.5243376617373602,-0.012298518718910717,-0.23161988810682402,-0.49525403727447465,-0.21148509365522528,0.04089543558478641,0.020073821701863788,0.16027406638978944,0.011857951618119714,-0.001598769389995321,-0.33453024325884856,0.05657074638559953,0.12000715952278494,0.10094082621597568,0.043926743401538355,-0.04658554767805513,0.1958976732261065,-0.10525556134117407,0.21781534168974293,-0.1835654764134497,-0.15222045621679564,0.13286833553166744,0.29245471119840744,-0.019037815608279662,-0.3507269595338283
0.6025733740528433,-0.007509265510733317,-0.34138121667252425,-0.461755618856274,-0.1717710346844761,0.010166235917386612,0.054694732182845346,0.06573755145776487,-0.004155319942634175,0.023223074524645844,-0.3264009527661098,-0.02618504416231849,0.18481554383678822,0.0531515252431767,0.026298403843669743,-0.12681205138376372,0.3085202774003567,-0.10742614636750804,0.3080210741291433,-0.19548761444380003,-0.06899462980585164,0.04059620906766339,0.3113706328109787,-0.098485667775998,-0.2797993100118961
0.5546186518838997,0.03521909260870706,-0.20013858431187032,-0.503765586356511,-0.21008242955500572,0.018557725775938366,-0.04920970670270119,0.14287537703675907,0.02677601555024088,-0.07412692316627632,-0.36274126042061516,0.07057466353308518,0.08737598529174176,0.10219480536189635,0.057685800450495955,-0.0393811152287682,0.12536843203554177,-0.02999448883502651,0.2952088479020383,-0.23548851090088788,-0.12150049612718598,0.13426651897615993,0.2582441094516997,-0.06087641674080644,-0.3638699163429927
0.2631387246079434,-0.11548529584185428,-0.09933922560484926,-0.6634511460110921,-0.45682303929510276,0.02626624117976926,0.21133431299742858,0.2900931039845925,-0.06855911501377014,0.10634618683643199,-0.33898296809738043,0.2576330200224245,0.10831780388026992,0.11626182396867042,-0.0010368644918399806,0.12477840959187438,0.11061246701128061,-0.18130517603057916,-0.16756045327537744,-0.16215018524682492,-0.17943625736984356,0.09805382713694893,0.788236485879234,0.1661110359600467,-0.4558929779259843
0.8708130682242355,0.030320853200697318,-0.29931419456470587,-0.4364725367812498,-0.07267434630603971,0.03358867046742567,0.13896490403357648,0.13843739704608932,0.04172170632996928,0.004851077891056351,-0.2954459163732177,0.08956403099490844,0.2919055678242469,0.0719555584234434,0.07003381170610355,-0.15295188012249675,0.3012663482452042,-0.10259320528785619,0.4798081454796431,-0.1887895156696611,-0.076573675903484,0.18577833928270315,0.08943440258407304,0.005469621120928744,-0.264764994576486
0.5339094982253211,-0.04552908443485747,-0.49613206285954714,-0.27909507598756267,-0.08846201353074341,0.07912542753441885,0.15128281663450635,0.11933991011795071,-0.014409536979645235,0.1486260232151779,-0.303953201267423,-0.18123508314170717,0.29312919791842545,0.028534233104814892,-0.04868872534758634,-0.1581117591383588,0.48901486320868326,-0.283677725645849,0.4266950265044491,-0.17606050498636222,-0.04213386107518013,0.05447326627557297,0.15395084655916488,-0.08310504682822457,-0.2863260666947818
0.5802281325828788,0.025880330356180384,-0.22902554319845425,-0.508092247880681,-0.22154433412167437,0.040093514203840816,-0.0317286258457223,0.14560677078351436,0.02188516229028039,-0.06355810053892942,-0.3394697084957964,0.04671423239186185,0.10443012118452229,0.09150854577434658,0.08155804609759697,-0.05756544745162567,0.1543959509285414,-0.05919923512951335,0.31994359296357133,-0.2188702519896762,-0.1474445502025834,0.11120783606233216,0.24848190258260397,-0.10641875220666708,-0.35829343408863057
0.22981511336644178,-0.09274204413179793,-0.28360291763788764,-0.49038952154565457,-0.3267310862616532,0.08382395314988872,0.08197961472505429,0.2381851703282097,-0.04607418388194785,0.13439830616055273,-0.29411605307754535,-0.00504895497521325,0.1207953993077561,0.09128650014264393,0.0335460694345976,0.006324376898338292,0.2942673687806839,-0.30140110717453106,0.04641426403360657,-0.10246926534486776,-0.23390858208349363,0.047234131955206364,0.5080153887322986,-0.007511730704963426,-0.40474999228929565
0.4497562070883928,-0.04034903881861807,-0.33712388257752457,-0.4121872877082562,-0.19640401939279245,0.03416950396040792,0.1480580487303555,0.13186126246151503,-0.036358011307233276,0.0787168700101143,-0.31897915533916954,-0.007160993563500408,0.1660284043735316,0.10659439554560717,0.00976996129400179,-0.08243666288217431,0.3611240670281107,-0.22988428877550243,0.16108160370131136,-0.13881162801368135,-0.0972432010708359,0.07444777847472223,0.34320873684048375,0.04310141068132759,-0.32069684333843973
0.40186326273701223,-0.06572390399768314,-0.2474260479800299,-0.48706414383367436,-0.2537016290360422,0.03782908570415292,0.09180271758565886,0.17096020800929065,-0.009998712204494586,0.059188998961822996,-0.3295952822932937,0.05454874964950013,0.12000136160047727,0.09946698164332334,0.02366018272345398,-0.03829421439173742,0.26161714261160174,-0.1730932126009242,0.0737575099292834,-0.14792758527561634,-0.17423443682313056,0.10604783840758858,0.4210027645456375,0.03024879892441245,-0.3560847661425302
